<?xml version="1.0"?>
<opencv_storage>
<cascade>
  <stageType>BOOST</stageType>
  <featureType>HAAR</featureType>
  <height>24</height>
  <width>32</width>
  <stageParams>
    <boostType>GAB</boostType>
    <minHitRate>9.9500000476837158e-01</minHitRate>
    <maxFalseAlarm>5.0000000000000000e-01</maxFalseAlarm>
    <weightTrimRate>9.4999998807907104e-01</weightTrimRate>
    <maxDepth>1</maxDepth>
    <maxWeakCount>100</maxWeakCount></stageParams>
  <featureParams>
    <maxCatCount>0</maxCatCount>
    <featSize>1</featSize>
    <mode>BASIC</mode></featureParams>
  <stageNum>7</stageNum>
  <stages>
    <!-- stage 0 -->
    <_>
      <maxWeakCount>2</maxWeakCount>
      <stageThreshold>5.1717315800487995e-03</stageThreshold>
      <weakClassifiers>
        <_>
          <internalNodes>
            0 -1 12 -1.1104732751846313e-01</internalNodes>
          <leafValues>
            9.3798446655273438e-01 -9.2675161361694336e-01</leafValues></_>
        <_>
          <internalNodes>
            0 -1 1 -2.2244295477867126e-01</internalNodes>
          <leafValues>
            9.6057385206222534e-01 -9.3281275033950806e-01</leafValues></_></weakClassifiers></_>
    <!-- stage 1 -->
    <_>
      <maxWeakCount>1</maxWeakCount>
      <stageThreshold>7.9393941164016724e-01</stageThreshold>
      <weakClassifiers>
        <_>
          <internalNodes>
            0 -1 10 2.2320337593555450e-03</internalNodes>
          <leafValues>
            -1. 7.9393941164016724e-01</leafValues></_></weakClassifiers></_>
    <!-- stage 2 -->
    <_>
      <maxWeakCount>3</maxWeakCount>
      <stageThreshold>-1.1919815540313721e+00</stageThreshold>
      <weakClassifiers>
        <_>
          <internalNodes>
            0 -1 3 -5.6281443685293198e-02</internalNodes>
          <leafValues>
            5.8940398693084717e-01 -9.0759074687957764e-01</leafValues></_>
        <_>
          <internalNodes>
            0 -1 9 2.1952488459646702e-03</internalNodes>
          <leafValues>
            -9.0191191434860229e-01 6.4998060464859009e-01</leafValues></_>
        <_>
          <internalNodes>
            0 -1 13 -3.5087585274595767e-05</internalNodes>
          <leafValues>
            6.1752116680145264e-01 -9.7859656810760498e-01</leafValues></_></weakClassifiers></_>
    <!-- stage 3 -->
    <_>
      <maxWeakCount>2</maxWeakCount>
      <stageThreshold>-2.7427896857261658e-01</stageThreshold>
      <weakClassifiers>
        <_>
          <internalNodes>
            0 -1 0 -2.5654032826423645e-01</internalNodes>
          <leafValues>
            6.6423356533050537e-01 -8.9032256603240967e-01</leafValues></_>
        <_>
          <internalNodes>
            0 -1 8 1.9373052055016160e-03</internalNodes>
          <leafValues>
            -9.2213129997253418e-01 6.1604362726211548e-01</leafValues></_></weakClassifiers></_>
    <!-- stage 4 -->
    <_>
      <maxWeakCount>3</maxWeakCount>
      <stageThreshold>-1.1482305526733398e+00</stageThreshold>
      <weakClassifiers>
        <_>
          <internalNodes>
            0 -1 5 -2.7031615376472473e-02</internalNodes>
          <leafValues>
            8.8888889551162720e-01 -8.1109446287155151e-01</leafValues></_>
        <_>
          <internalNodes>
            0 -1 15 9.3182379714562558e-06</internalNodes>
          <leafValues>
            -9.6166843175888062e-01 4.8239508271217346e-01</leafValues></_>
        <_>
          <internalNodes>
            0 -1 14 -9.4659499154658988e-06</internalNodes>
          <leafValues>
            6.2453228235244751e-01 -7.9986488819122314e-01</leafValues></_></weakClassifiers></_>
    <!-- stage 5 -->
    <_>
      <maxWeakCount>3</maxWeakCount>
      <stageThreshold>-6.9943588972091675e-01</stageThreshold>
      <weakClassifiers>
        <_>
          <internalNodes>
            0 -1 7 -2.0770814269781113e-02</internalNodes>
          <leafValues>
            7.8494626283645630e-01 -8.0421686172485352e-01</leafValues></_>
        <_>
          <internalNodes>
            0 -1 4 3.4364029765129089e-02</internalNodes>
          <leafValues>
            -6.8113309144973755e-01 8.4758663177490234e-01</leafValues></_>
        <_>
          <internalNodes>
            0 -1 2 -1.9711837172508240e-01</internalNodes>
          <leafValues>
            7.8591412305831909e-01 -6.9090110063552856e-01</leafValues></_></weakClassifiers></_>
    <!-- stage 6 -->
    <_>
      <maxWeakCount>2</maxWeakCount>
      <stageThreshold>-1.2511897087097168e-01</stageThreshold>
      <weakClassifiers>
        <_>
          <internalNodes>
            0 -1 11 -1.1630195379257202e-01</internalNodes>
          <leafValues>
            7.7777779102325439e-01 -8.8589543104171753e-01</leafValues></_>
        <_>
          <internalNodes>
            0 -1 6 3.9360518567264080e-03</internalNodes>
          <leafValues>
            -8.3475035429000854e-01 7.6077646017074585e-01</leafValues></_></weakClassifiers></_></stages>
  <features>
    <_>
      <rects>
        <_>
          2 0 10 22 -1.</_>
        <_>
          2 11 10 11 2.</_></rects>
      <tilted>0</tilted></_>
    <_>
      <rects>
        <_>
          3 1 27 10 -1.</_>
        <_>
          12 1 9 10 3.</_></rects>
      <tilted>0</tilted></_>
    <_>
      <rects>
        <_>
          6 1 24 7 -1.</_>
        <_>
          14 1 8 7 3.</_></rects>
      <tilted>0</tilted></_>
    <_>
      <rects>
        <_>
          7 0 2 24 -1.</_>
        <_>
          7 12 2 12 2.</_></rects>
      <tilted>0</tilted></_>
    <_>
      <rects>
        <_>
          10 5 4 12 -1.</_>
        <_>
          10 9 4 4 3.</_></rects>
      <tilted>0</tilted></_>
    <_>
      <rects>
        <_>
          11 2 6 6 -1.</_>
        <_>
          13 2 2 6 3.</_></rects>
      <tilted>0</tilted></_>
    <_>
      <rects>
        <_>
          14 2 2 8 -1.</_>
        <_>
          15 2 1 8 2.</_></rects>
      <tilted>0</tilted></_>
    <_>
      <rects>
        <_>
          14 5 14 6 -1.</_>
        <_>
          14 5 7 3 2.</_>
        <_>
          21 8 7 3 2.</_></rects>
      <tilted>0</tilted></_>
    <_>
      <rects>
        <_>
          15 1 7 2 -1.</_>
        <_>
          15 2 7 1 2.</_></rects>
      <tilted>0</tilted></_>
    <_>
      <rects>
        <_>
          15 1 9 2 -1.</_>
        <_>
          15 2 9 1 2.</_></rects>
      <tilted>0</tilted></_>
    <_>
      <rects>
        <_>
          22 4 4 6 -1.</_>
        <_>
          22 7 4 3 2.</_></rects>
      <tilted>0</tilted></_>
    <_>
      <rects>
        <_>
          23 2 4 20 -1.</_>
        <_>
          23 12 4 10 2.</_></rects>
      <tilted>0</tilted></_>
    <_>
      <rects>
        <_>
          23 7 9 10 -1.</_>
        <_>
          23 12 9 5 2.</_></rects>
      <tilted>0</tilted></_>
    <_>
      <rects>
        <_>
          27 1 2 2 -1.</_>
        <_>
          28 1 1 2 2.</_></rects>
      <tilted>0</tilted></_>
    <_>
      <rects>
        <_>
          29 4 1 2 -1.</_>
        <_>
          29 5 1 1 2.</_></rects>
      <tilted>0</tilted></_>
    <_>
      <rects>
        <_>
          30 0 1 2 -1.</_>
        <_>
          30 1 1 1 2.</_></rects>
      <tilted>0</tilted></_></features></cascade>
</opencv_storage>
