<?xml version="1.0"?>
<opencv_storage>
<cascade>
  <stageType>BOOST</stageType>
  <featureType>HAAR</featureType>
  <height>24</height>
  <width>32</width>
  <stageParams>
    <boostType>GAB</boostType>
    <minHitRate>9.9500000476837158e-01</minHitRate>
    <maxFalseAlarm>5.0000000000000000e-01</maxFalseAlarm>
    <weightTrimRate>9.4999998807907104e-01</weightTrimRate>
    <maxDepth>1</maxDepth>
    <maxWeakCount>100</maxWeakCount></stageParams>
  <featureParams>
    <maxCatCount>0</maxCatCount>
    <featSize>1</featSize>
    <mode>BASIC</mode></featureParams>
  <stageNum>7</stageNum>
  <stages>
    <!-- stage 0 -->
    <_>
      <maxWeakCount>2</maxWeakCount>
      <stageThreshold>-2.9587128758430481e-01</stageThreshold>
      <weakClassifiers>
        <_>
          <internalNodes>
            0 -1 0 -2.0847740769386292e-01</internalNodes>
          <leafValues>
            9.2105263471603394e-01 -9.9338841438293457e-01</leafValues></_>
        <_>
          <internalNodes>
            0 -1 4 -6.1377555131912231e-02</internalNodes>
          <leafValues>
            6.9751715660095215e-01 -1.</leafValues></_></weakClassifiers></_>
    <!-- stage 1 -->
    <_>
      <maxWeakCount>2</maxWeakCount>
      <stageThreshold>-1.3506954908370972e-01</stageThreshold>
      <weakClassifiers>
        <_>
          <internalNodes>
            0 -1 8 -3.2280945777893066e-01</internalNodes>
          <leafValues>
            8.9855074882507324e-01 -9.4507271051406860e-01</leafValues></_>
        <_>
          <internalNodes>
            0 -1 9 2.4676162749528885e-02</internalNodes>
          <leafValues>
            -9.9326646327972412e-01 8.1000316143035889e-01</leafValues></_></weakClassifiers></_>
    <!-- stage 2 -->
    <_>
      <maxWeakCount>2</maxWeakCount>
      <stageThreshold>-6.5456455945968628e-01</stageThreshold>
      <weakClassifiers>
        <_>
          <internalNodes>
            0 -1 5 -4.9417156726121902e-02</internalNodes>
          <leafValues>
            3.4259259700775146e-01 -9.8890942335128784e-01</leafValues></_>
        <_>
          <internalNodes>
            0 -1 12 -9.8309683380648494e-06</internalNodes>
          <leafValues>
            3.3434483408927917e-01 -1.</leafValues></_></weakClassifiers></_>
    <!-- stage 3 -->
    <_>
      <maxWeakCount>2</maxWeakCount>
      <stageThreshold>-4.2963385581970215e-01</stageThreshold>
      <weakClassifiers>
        <_>
          <internalNodes>
            0 -1 3 -2.9932475090026855e-01</internalNodes>
          <leafValues>
            5.6129032373428345e-01 -9.1029900312423706e-01</leafValues></_>
        <_>
          <internalNodes>
            0 -1 2 -7.8595787286758423e-02</internalNodes>
          <leafValues>
            5.3668391704559326e-01 -9.9092417955398560e-01</leafValues></_></weakClassifiers></_>
    <!-- stage 4 -->
    <_>
      <maxWeakCount>2</maxWeakCount>
      <stageThreshold>-1.7355947196483612e-01</stageThreshold>
      <weakClassifiers>
        <_>
          <internalNodes>
            0 -1 7 -1.6521304845809937e-02</internalNodes>
          <leafValues>
            6.5853661298751831e-01 -8.5488957166671753e-01</leafValues></_>
        <_>
          <internalNodes>
            0 -1 11 -5.0636906176805496e-02</internalNodes>
          <leafValues>
            7.4862819910049438e-01 -8.3209604024887085e-01</leafValues></_></weakClassifiers></_>
    <!-- stage 5 -->
    <_>
      <maxWeakCount>2</maxWeakCount>
      <stageThreshold>-5.8347058296203613e-01</stageThreshold>
      <weakClassifiers>
        <_>
          <internalNodes>
            0 -1 13 3.4045151551254094e-05</internalNodes>
          <leafValues>
            -9.8151570558547974e-01 3.2407405972480774e-01</leafValues></_>
        <_>
          <internalNodes>
            0 -1 10 3.5176955163478851e-02</internalNodes>
          <leafValues>
            -9.0754467248916626e-01 5.1485824584960938e-01</leafValues></_></weakClassifiers></_>
    <!-- stage 6 -->
    <_>
      <maxWeakCount>2</maxWeakCount>
      <stageThreshold>-1.0483436286449432e-01</stageThreshold>
      <weakClassifiers>
        <_>
          <internalNodes>
            0 -1 1 -6.1367239803075790e-02</internalNodes>
          <leafValues>
            7.8260868787765503e-01 -8.0150377750396729e-01</leafValues></_>
        <_>
          <internalNodes>
            0 -1 6 -3.9062022551661357e-05</internalNodes>
          <leafValues>
            6.9666939973831177e-01 -8.8116443157196045e-01</leafValues></_></weakClassifiers></_></stages>
  <features>
    <_>
      <rects>
        <_>
          0 1 30 8 -1.</_>
        <_>
          10 1 10 8 3.</_></rects>
      <tilted>0</tilted></_>
    <_>
      <rects>
        <_>
          0 10 26 4 -1.</_>
        <_>
          0 12 26 2 2.</_></rects>
      <tilted>0</tilted></_>
    <_>
      <rects>
        <_>
          2 1 4 18 -1.</_>
        <_>
          2 10 4 9 2.</_></rects>
      <tilted>0</tilted></_>
    <_>
      <rects>
        <_>
          3 0 24 12 -1.</_>
        <_>
          11 0 8 12 3.</_></rects>
      <tilted>0</tilted></_>
    <_>
      <rects>
        <_>
          4 5 21 4 -1.</_>
        <_>
          11 5 7 4 3.</_></rects>
      <tilted>0</tilted></_>
    <_>
      <rects>
        <_>
          5 0 2 22 -1.</_>
        <_>
          5 11 2 11 2.</_></rects>
      <tilted>0</tilted></_>
    <_>
      <rects>
        <_>
          6 2 1 2 -1.</_>
        <_>
          6 3 1 1 2.</_></rects>
      <tilted>0</tilted></_>
    <_>
      <rects>
        <_>
          7 5 14 6 -1.</_>
        <_>
          7 7 14 2 3.</_></rects>
      <tilted>0</tilted></_>
    <_>
      <rects>
        <_>
          8 3 24 16 -1.</_>
        <_>
          8 11 24 8 2.</_></rects>
      <tilted>0</tilted></_>
    <_>
      <rects>
        <_>
          10 1 9 15 -1.</_>
        <_>
          10 6 9 5 3.</_></rects>
      <tilted>0</tilted></_>
    <_>
      <rects>
        <_>
          12 0 20 6 -1.</_>
        <_>
          12 3 20 3 2.</_></rects>
      <tilted>0</tilted></_>
    <_>
      <rects>
        <_>
          13 7 16 9 -1.</_>
        <_>
          13 10 16 3 3.</_></rects>
      <tilted>0</tilted></_>
    <_>
      <rects>
        <_>
          24 15 1 2 -1.</_>
        <_>
          24 16 1 1 2.</_></rects>
      <tilted>0</tilted></_>
    <_>
      <rects>
        <_>
          29 1 1 2 -1.</_>
        <_>
          29 2 1 1 2.</_></rects>
      <tilted>0</tilted></_></features></cascade>
</opencv_storage>
