<?xml version="1.0"?>
<opencv_storage>
<cascade>
  <stageType>BOOST</stageType>
  <featureType>HAAR</featureType>
  <height>24</height>
  <width>36</width>
  <stageParams>
    <boostType>GAB</boostType>
    <minHitRate>9.9500000476837158e-01</minHitRate>
    <maxFalseAlarm>5.0000000000000000e-01</maxFalseAlarm>
    <weightTrimRate>9.4999998807907104e-01</weightTrimRate>
    <maxDepth>1</maxDepth>
    <maxWeakCount>100</maxWeakCount></stageParams>
  <featureParams>
    <maxCatCount>0</maxCatCount>
    <featSize>1</featSize>
    <mode>BASIC</mode></featureParams>
  <stageNum>13</stageNum>
  <stages>
    <!-- stage 0 -->
    <_>
      <maxWeakCount>5</maxWeakCount>
      <stageThreshold>-1.4033111333847046e+00</stageThreshold>
      <weakClassifiers>
        <_>
          <internalNodes>
            0 -1 53 1.3772954232990742e-02</internalNodes>
          <leafValues>
            -8.7103593349456787e-01 1.7142857611179352e-01</leafValues></_>
        <_>
          <internalNodes>
            0 -1 89 6.0660578310489655e-04</internalNodes>
          <leafValues>
            -7.6369798183441162e-01 3.7088105082511902e-01</leafValues></_>
        <_>
          <internalNodes>
            0 -1 39 -5.9845216572284698e-02</internalNodes>
          <leafValues>
            4.3025121092796326e-01 -6.7495208978652954e-01</leafValues></_>
        <_>
          <internalNodes>
            0 -1 20 5.1092461217194796e-04</internalNodes>
          <leafValues>
            3.0187496542930603e-01 -8.7498503923416138e-01</leafValues></_>
        <_>
          <internalNodes>
            0 -1 13 6.7809103056788445e-03</internalNodes>
          <leafValues>
            -4.3796458840370178e-01 6.4843642711639404e-01</leafValues></_></weakClassifiers></_>
    <!-- stage 1 -->
    <_>
      <maxWeakCount>6</maxWeakCount>
      <stageThreshold>-1.8404375314712524e+00</stageThreshold>
      <weakClassifiers>
        <_>
          <internalNodes>
            0 -1 23 -1.3181269168853760e-01</internalNodes>
          <leafValues>
            8.9655172824859619e-01 -7.6502734422683716e-01</leafValues></_>
        <_>
          <internalNodes>
            0 -1 46 -2.8216835111379623e-02</internalNodes>
          <leafValues>
            4.9980899691581726e-01 -7.7100980281829834e-01</leafValues></_>
        <_>
          <internalNodes>
            0 -1 68 -6.1956131830811501e-03</internalNodes>
          <leafValues>
            6.6142922639846802e-01 -4.5713061094284058e-01</leafValues></_>
        <_>
          <internalNodes>
            0 -1 67 2.0746555179357529e-02</internalNodes>
          <leafValues>
            -6.2699860334396362e-01 5.0666028261184692e-01</leafValues></_>
        <_>
          <internalNodes>
            0 -1 3 8.4075409176875837e-06</internalNodes>
          <leafValues>
            -6.2324810028076172e-01 3.9713799953460693e-01</leafValues></_>
        <_>
          <internalNodes>
            0 -1 6 -7.0605703513137996e-05</internalNodes>
          <leafValues>
            2.8441700339317322e-01 -9.7236055135726929e-01</leafValues></_></weakClassifiers></_>
    <!-- stage 2 -->
    <_>
      <maxWeakCount>8</maxWeakCount>
      <stageThreshold>-1.8121885061264038e+00</stageThreshold>
      <weakClassifiers>
        <_>
          <internalNodes>
            0 -1 58 -2.2962084040045738e-02</internalNodes>
          <leafValues>
            8.4210526943206787e-01 -7.8888887166976929e-01</leafValues></_>
        <_>
          <internalNodes>
            0 -1 36 -3.0821986496448517e-02</internalNodes>
          <leafValues>
            4.8731234669685364e-01 -6.0345035791397095e-01</leafValues></_>
        <_>
          <internalNodes>
            0 -1 10 -6.3478853553533554e-03</internalNodes>
          <leafValues>
            -9.7624617815017700e-01 2.5255385041236877e-01</leafValues></_>
        <_>
          <internalNodes>
            0 -1 73 -2.0070401951670647e-03</internalNodes>
          <leafValues>
            5.0212627649307251e-01 -4.3146428465843201e-01</leafValues></_>
        <_>
          <internalNodes>
            0 -1 63 2.0702885463833809e-02</internalNodes>
          <leafValues>
            -3.1969106197357178e-01 7.2396326065063477e-01</leafValues></_>
        <_>
          <internalNodes>
            0 -1 56 6.3519664108753204e-03</internalNodes>
          <leafValues>
            -2.6652166247367859e-01 8.3378082513809204e-01</leafValues></_>
        <_>
          <internalNodes>
            0 -1 85 -1.1585105676203966e-04</internalNodes>
          <leafValues>
            -8.1282109022140503e-01 3.0751276016235352e-01</leafValues></_>
        <_>
          <internalNodes>
            0 -1 86 3.5881638177670538e-04</internalNodes>
          <leafValues>
            1.7579844594001770e-01 -9.2202150821685791e-01</leafValues></_></weakClassifiers></_>
    <!-- stage 3 -->
    <_>
      <maxWeakCount>8</maxWeakCount>
      <stageThreshold>-1.8077464103698730e+00</stageThreshold>
      <weakClassifiers>
        <_>
          <internalNodes>
            0 -1 57 -4.2693525552749634e-02</internalNodes>
          <leafValues>
            3.4736841917037964e-01 -7.7379828691482544e-01</leafValues></_>
        <_>
          <internalNodes>
            0 -1 49 -8.6765354499220848e-03</internalNodes>
          <leafValues>
            1.1068647354841232e-01 -7.8138852119445801e-01</leafValues></_>
        <_>
          <internalNodes>
            0 -1 17 -2.0972729544155300e-05</internalNodes>
          <leafValues>
            -6.8570989370346069e-01 2.5478914380073547e-01</leafValues></_>
        <_>
          <internalNodes>
            0 -1 15 -4.1388839483261108e-02</internalNodes>
          <leafValues>
            3.5927656292915344e-01 -5.4110211133956909e-01</leafValues></_>
        <_>
          <internalNodes>
            0 -1 55 8.7986439466476440e-03</internalNodes>
          <leafValues>
            -7.0189481973648071e-01 2.8285315632820129e-01</leafValues></_>
        <_>
          <internalNodes>
            0 -1 1 1.0756409727036953e-02</internalNodes>
          <leafValues>
            2.3054310679435730e-01 -9.3074083328247070e-01</leafValues></_>
        <_>
          <internalNodes>
            0 -1 81 -5.1777453336399049e-05</internalNodes>
          <leafValues>
            2.9666957259178162e-01 -6.3214421272277832e-01</leafValues></_>
        <_>
          <internalNodes>
            0 -1 75 -3.6046426976099610e-04</internalNodes>
          <leafValues>
            4.1340661048889160e-01 -4.5788025856018066e-01</leafValues></_></weakClassifiers></_>
    <!-- stage 4 -->
    <_>
      <maxWeakCount>8</maxWeakCount>
      <stageThreshold>-1.2328817844390869e+00</stageThreshold>
      <weakClassifiers>
        <_>
          <internalNodes>
            0 -1 47 -3.9598867297172546e-02</internalNodes>
          <leafValues>
            3.9130434393882751e-01 -7.7443611621856689e-01</leafValues></_>
        <_>
          <internalNodes>
            0 -1 44 2.7190150693058968e-02</internalNodes>
          <leafValues>
            -3.9363133907318115e-01 8.0976486206054688e-01</leafValues></_>
        <_>
          <internalNodes>
            0 -1 28 -7.9133123159408569e-02</internalNodes>
          <leafValues>
            6.7381620407104492e-01 -3.7815418839454651e-01</leafValues></_>
        <_>
          <internalNodes>
            0 -1 38 -2.4981600290630013e-05</internalNodes>
          <leafValues>
            -6.0749650001525879e-01 3.2590764760971069e-01</leafValues></_>
        <_>
          <internalNodes>
            0 -1 84 1.4864905097056180e-04</internalNodes>
          <leafValues>
            -4.9317276477813721e-01 3.2365751266479492e-01</leafValues></_>
        <_>
          <internalNodes>
            0 -1 32 -2.4662956595420837e-02</internalNodes>
          <leafValues>
            4.3085086345672607e-01 -3.6820003390312195e-01</leafValues></_>
        <_>
          <internalNodes>
            0 -1 31 -9.4962224364280701e-02</internalNodes>
          <leafValues>
            4.4118937849998474e-01 -4.1160491108894348e-01</leafValues></_>
        <_>
          <internalNodes>
            0 -1 76 -5.2071601385250688e-04</internalNodes>
          <leafValues>
            5.0922441482543945e-01 -3.9143523573875427e-01</leafValues></_></weakClassifiers></_>
    <!-- stage 5 -->
    <_>
      <maxWeakCount>7</maxWeakCount>
      <stageThreshold>-1.7980022430419922e+00</stageThreshold>
      <weakClassifiers>
        <_>
          <internalNodes>
            0 -1 22 -2.0744174718856812e-01</internalNodes>
          <leafValues>
            8.9473682641983032e-01 -7.3524153232574463e-01</leafValues></_>
        <_>
          <internalNodes>
            0 -1 52 1.2768960557878017e-02</internalNodes>
          <leafValues>
            -5.7410484552383423e-01 4.5024704933166504e-01</leafValues></_>
        <_>
          <internalNodes>
            0 -1 33 6.1313383048400283e-04</internalNodes>
          <leafValues>
            -4.5270809531211853e-01 4.3352782726287842e-01</leafValues></_>
        <_>
          <internalNodes>
            0 -1 64 1.6563296318054199e-02</internalNodes>
          <leafValues>
            -6.2952274084091187e-01 2.9670006036758423e-01</leafValues></_>
        <_>
          <internalNodes>
            0 -1 9 7.5351948908064514e-05</internalNodes>
          <leafValues>
            2.1111243963241577e-01 -8.6106842756271362e-01</leafValues></_>
        <_>
          <internalNodes>
            0 -1 8 -1.0192611080128700e-04</internalNodes>
          <leafValues>
            -8.0308276414871216e-01 2.0675289630889893e-01</leafValues></_>
        <_>
          <internalNodes>
            0 -1 29 -5.9158084914088249e-03</internalNodes>
          <leafValues>
            1.7570956051349640e-01 -8.0181419849395752e-01</leafValues></_></weakClassifiers></_>
    <!-- stage 6 -->
    <_>
      <maxWeakCount>7</maxWeakCount>
      <stageThreshold>-1.5697463750839233e+00</stageThreshold>
      <weakClassifiers>
        <_>
          <internalNodes>
            0 -1 11 -1.3060286641120911e-01</internalNodes>
          <leafValues>
            -2.4770642817020416e-01 -8.5283476114273071e-01</leafValues></_>
        <_>
          <internalNodes>
            0 -1 5 2.2566299885511398e-02</internalNodes>
          <leafValues>
            7.7824788168072701e-03 -9.1580086946487427e-01</leafValues></_>
        <_>
          <internalNodes>
            0 -1 82 1.0683688742574304e-04</internalNodes>
          <leafValues>
            1.1355426907539368e-01 -9.5962309837341309e-01</leafValues></_>
        <_>
          <internalNodes>
            0 -1 60 2.2487767040729523e-02</internalNodes>
          <leafValues>
            -6.6092061996459961e-01 2.6293304562568665e-01</leafValues></_>
        <_>
          <internalNodes>
            0 -1 91 -8.3633349277079105e-06</internalNodes>
          <leafValues>
            2.8942790627479553e-01 -5.4656207561492920e-01</leafValues></_>
        <_>
          <internalNodes>
            0 -1 37 5.5850378703325987e-04</internalNodes>
          <leafValues>
            -4.0656682848930359e-01 4.1877579689025879e-01</leafValues></_>
        <_>
          <internalNodes>
            0 -1 0 1.6837388277053833e-02</internalNodes>
          <leafValues>
            1.7067278921604156e-01 -9.7647362947463989e-01</leafValues></_></weakClassifiers></_>
    <!-- stage 7 -->
    <_>
      <maxWeakCount>8</maxWeakCount>
      <stageThreshold>-1.6522985696792603e+00</stageThreshold>
      <weakClassifiers>
        <_>
          <internalNodes>
            0 -1 69 2.0043224096298218e-02</internalNodes>
          <leafValues>
            -7.4094200134277344e-01 5.7692307233810425e-01</leafValues></_>
        <_>
          <internalNodes>
            0 -1 71 -5.1608923822641373e-03</internalNodes>
          <leafValues>
            7.3167920112609863e-01 -3.4470289945602417e-01</leafValues></_>
        <_>
          <internalNodes>
            0 -1 4 1.8795704818330705e-05</internalNodes>
          <leafValues>
            -5.3969216346740723e-01 2.9032453894615173e-01</leafValues></_>
        <_>
          <internalNodes>
            0 -1 7 6.5326737239956856e-04</internalNodes>
          <leafValues>
            1.6527321934700012e-01 -8.9675676822662354e-01</leafValues></_>
        <_>
          <internalNodes>
            0 -1 34 1.9275312661193311e-04</internalNodes>
          <leafValues>
            -4.6919983625411987e-01 3.5734841227531433e-01</leafValues></_>
        <_>
          <internalNodes>
            0 -1 12 -1.7012119293212891e-02</internalNodes>
          <leafValues>
            6.3540065288543701e-01 -2.9619169235229492e-01</leafValues></_>
        <_>
          <internalNodes>
            0 -1 83 1.3429619139060378e-04</internalNodes>
          <leafValues>
            1.8421159684658051e-01 -9.2101269960403442e-01</leafValues></_>
        <_>
          <internalNodes>
            0 -1 59 2.3256861604750156e-03</internalNodes>
          <leafValues>
            -4.2324191331863403e-01 3.8894531130790710e-01</leafValues></_></weakClassifiers></_>
    <!-- stage 8 -->
    <_>
      <maxWeakCount>7</maxWeakCount>
      <stageThreshold>-1.4423669576644897e+00</stageThreshold>
      <weakClassifiers>
        <_>
          <internalNodes>
            0 -1 54 -4.3634343892335892e-03</internalNodes>
          <leafValues>
            4.6666666865348816e-01 -7.4452555179595947e-01</leafValues></_>
        <_>
          <internalNodes>
            0 -1 25 2.4974737316370010e-02</internalNodes>
          <leafValues>
            -4.3680739402770996e-01 4.7771859169006348e-01</leafValues></_>
        <_>
          <internalNodes>
            0 -1 93 -9.2453584074974060e-03</internalNodes>
          <leafValues>
            4.8505571484565735e-01 -4.3317773938179016e-01</leafValues></_>
        <_>
          <internalNodes>
            0 -1 48 -3.8102655671536922e-03</internalNodes>
          <leafValues>
            3.2182896137237549e-01 -6.1706149578094482e-01</leafValues></_>
        <_>
          <internalNodes>
            0 -1 35 -6.9484852254390717e-02</internalNodes>
          <leafValues>
            7.5746363401412964e-01 -2.4298386275768280e-01</leafValues></_>
        <_>
          <internalNodes>
            0 -1 42 4.8062324640341103e-04</internalNodes>
          <leafValues>
            -3.1940194964408875e-01 5.2661180496215820e-01</leafValues></_>
        <_>
          <internalNodes>
            0 -1 65 -3.1679362058639526e-02</internalNodes>
          <leafValues>
            4.5008295774459839e-01 -4.1265615820884705e-01</leafValues></_></weakClassifiers></_>
    <!-- stage 9 -->
    <_>
      <maxWeakCount>8</maxWeakCount>
      <stageThreshold>-1.7405025959014893e+00</stageThreshold>
      <weakClassifiers>
        <_>
          <internalNodes>
            0 -1 66 3.8920782506465912e-02</internalNodes>
          <leafValues>
            -7.3561149835586548e-01 6.8181818723678589e-01</leafValues></_>
        <_>
          <internalNodes>
            0 -1 14 -9.7175225615501404e-02</internalNodes>
          <leafValues>
            3.0667242407798767e-01 -4.9077209830284119e-01</leafValues></_>
        <_>
          <internalNodes>
            0 -1 51 1.5326585620641708e-02</internalNodes>
          <leafValues>
            -3.9168283343315125e-01 4.0636038780212402e-01</leafValues></_>
        <_>
          <internalNodes>
            0 -1 40 -3.5263223107904196e-03</internalNodes>
          <leafValues>
            3.8033819198608398e-01 -4.2524829506874084e-01</leafValues></_>
        <_>
          <internalNodes>
            0 -1 92 7.2035611083265394e-05</internalNodes>
          <leafValues>
            -6.6206079721450806e-01 2.2786788642406464e-01</leafValues></_>
        <_>
          <internalNodes>
            0 -1 80 4.6993554569780827e-03</internalNodes>
          <leafValues>
            1.7605774104595184e-01 -8.8473337888717651e-01</leafValues></_>
        <_>
          <internalNodes>
            0 -1 62 1.6098911873996258e-03</internalNodes>
          <leafValues>
            -2.5712442398071289e-01 6.9337373971939087e-01</leafValues></_>
        <_>
          <internalNodes>
            0 -1 24 -1.7215176194440573e-04</internalNodes>
          <leafValues>
            -8.7610143423080444e-01 2.4035307765007019e-01</leafValues></_></weakClassifiers></_>
    <!-- stage 10 -->
    <_>
      <maxWeakCount>9</maxWeakCount>
      <stageThreshold>-2.0668556690216064e+00</stageThreshold>
      <weakClassifiers>
        <_>
          <internalNodes>
            0 -1 70 -6.2463553622364998e-03</internalNodes>
          <leafValues>
            7.7777779102325439e-01 -7.2857141494750977e-01</leafValues></_>
        <_>
          <internalNodes>
            0 -1 30 3.2630353234708309e-04</internalNodes>
          <leafValues>
            -6.3931274414062500e-01 3.0322098731994629e-01</leafValues></_>
        <_>
          <internalNodes>
            0 -1 79 2.1438786643557250e-04</internalNodes>
          <leafValues>
            -4.1594225168228149e-01 3.8445720076560974e-01</leafValues></_>
        <_>
          <internalNodes>
            0 -1 72 7.8816153109073639e-04</internalNodes>
          <leafValues>
            -2.9835948348045349e-01 5.2444046735763550e-01</leafValues></_>
        <_>
          <internalNodes>
            0 -1 19 -1.4063720300327986e-04</internalNodes>
          <leafValues>
            -7.5123596191406250e-01 2.0509548485279083e-01</leafValues></_>
        <_>
          <internalNodes>
            0 -1 74 -3.7726582959294319e-03</internalNodes>
          <leafValues>
            5.3347682952880859e-01 -2.9069793224334717e-01</leafValues></_>
        <_>
          <internalNodes>
            0 -1 90 -2.1889652998652309e-05</internalNodes>
          <leafValues>
            2.8091004490852356e-01 -6.3624918460845947e-01</leafValues></_>
        <_>
          <internalNodes>
            0 -1 61 -2.9384855180978775e-02</internalNodes>
          <leafValues>
            3.6950287222862244e-01 -5.3016889095306396e-01</leafValues></_>
        <_>
          <internalNodes>
            0 -1 41 3.9622362237423658e-05</internalNodes>
          <leafValues>
            -4.7398325800895691e-01 3.1450948119163513e-01</leafValues></_></weakClassifiers></_>
    <!-- stage 11 -->
    <_>
      <maxWeakCount>7</maxWeakCount>
      <stageThreshold>-1.6413373947143555e+00</stageThreshold>
      <weakClassifiers>
        <_>
          <internalNodes>
            0 -1 2 -3.5101437568664551e-01</internalNodes>
          <leafValues>
            7.3684209585189819e-01 -7.2987478971481323e-01</leafValues></_>
        <_>
          <internalNodes>
            0 -1 21 -1.4210282266139984e-01</internalNodes>
          <leafValues>
            3.1396597623825073e-01 -5.8341294527053833e-01</leafValues></_>
        <_>
          <internalNodes>
            0 -1 88 1.6324294847436249e-04</internalNodes>
          <leafValues>
            1.7263315618038177e-01 -8.3596044778823853e-01</leafValues></_>
        <_>
          <internalNodes>
            0 -1 50 -1.3403424620628357e-01</internalNodes>
          <leafValues>
            -9.3590301275253296e-01 1.8047237396240234e-01</leafValues></_>
        <_>
          <internalNodes>
            0 -1 45 1.6644629067741334e-04</internalNodes>
          <leafValues>
            -4.5090240240097046e-01 3.6069029569625854e-01</leafValues></_>
        <_>
          <internalNodes>
            0 -1 78 2.8250063769519329e-03</internalNodes>
          <leafValues>
            2.0869894325733185e-01 -7.3732060194015503e-01</leafValues></_>
        <_>
          <internalNodes>
            0 -1 26 -2.8561251237988472e-02</internalNodes>
          <leafValues>
            3.7205767631530762e-01 -4.3895176053047180e-01</leafValues></_></weakClassifiers></_>
    <!-- stage 12 -->
    <_>
      <maxWeakCount>6</maxWeakCount>
      <stageThreshold>-1.5610958337783813e+00</stageThreshold>
      <weakClassifiers>
        <_>
          <internalNodes>
            0 -1 77 -5.4262433201074600e-02</internalNodes>
          <leafValues>
            1.3761468231678009e-01 -7.6695317029953003e-01</leafValues></_>
        <_>
          <internalNodes>
            0 -1 87 -7.8355922596529126e-05</internalNodes>
          <leafValues>
            -8.6368799209594727e-01 6.4659215509891510e-02</leafValues></_>
        <_>
          <internalNodes>
            0 -1 43 9.5052804681472480e-05</internalNodes>
          <leafValues>
            -5.0944048166275024e-01 3.1928247213363647e-01</leafValues></_>
        <_>
          <internalNodes>
            0 -1 18 2.0363333169370890e-04</internalNodes>
          <leafValues>
            1.8194462358951569e-01 -9.0960139036178589e-01</leafValues></_>
        <_>
          <internalNodes>
            0 -1 16 -1.2993192067369819e-03</internalNodes>
          <leafValues>
            2.1845912933349609e-01 -7.7661508321762085e-01</leafValues></_>
        <_>
          <internalNodes>
            0 -1 27 1.9690178305609152e-05</internalNodes>
          <leafValues>
            2.4530911445617676e-01 -6.5596306324005127e-01</leafValues></_></weakClassifiers></_></stages>
  <features>
    <_>
      <rects>
        <_>
          0 0 34 2 -1.</_>
        <_>
          17 0 17 2 2.</_></rects>
      <tilted>0</tilted></_>
    <_>
      <rects>
        <_>
          0 0 36 2 -1.</_>
        <_>
          18 0 18 2 2.</_></rects>
      <tilted>0</tilted></_>
    <_>
      <rects>
        <_>
          0 3 36 8 -1.</_>
        <_>
          12 3 12 8 3.</_></rects>
      <tilted>0</tilted></_>
    <_>
      <rects>
        <_>
          0 6 4 1 -1.</_>
        <_>
          2 6 2 1 2.</_></rects>
      <tilted>0</tilted></_>
    <_>
      <rects>
        <_>
          0 6 4 2 -1.</_>
        <_>
          2 6 2 2 2.</_></rects>
      <tilted>0</tilted></_>
    <_>
      <rects>
        <_>
          0 6 14 18 -1.</_>
        <_>
          7 6 7 18 2.</_></rects>
      <tilted>0</tilted></_>
    <_>
      <rects>
        <_>
          0 11 3 12 -1.</_>
        <_>
          0 17 3 6 2.</_></rects>
      <tilted>0</tilted></_>
    <_>
      <rects>
        <_>
          0 11 10 1 -1.</_>
        <_>
          5 11 5 1 2.</_></rects>
      <tilted>0</tilted></_>
    <_>
      <rects>
        <_>
          0 13 2 6 -1.</_>
        <_>
          1 13 1 6 2.</_></rects>
      <tilted>0</tilted></_>
    <_>
      <rects>
        <_>
          0 14 3 2 -1.</_>
        <_>
          1 14 1 2 3.</_></rects>
      <tilted>0</tilted></_>
    <_>
      <rects>
        <_>
          0 23 32 1 -1.</_>
        <_>
          16 23 16 1 2.</_></rects>
      <tilted>0</tilted></_>
    <_>
      <rects>
        <_>
          1 0 15 24 -1.</_>
        <_>
          1 8 15 8 3.</_></rects>
      <tilted>0</tilted></_>
    <_>
      <rects>
        <_>
          1 1 18 4 -1.</_>
        <_>
          1 1 9 2 2.</_>
        <_>
          10 3 9 2 2.</_></rects>
      <tilted>0</tilted></_>
    <_>
      <rects>
        <_>
          1 1 25 3 -1.</_>
        <_>
          1 2 25 1 3.</_></rects>
      <tilted>0</tilted></_>
    <_>
      <rects>
        <_>
          1 2 17 21 -1.</_>
        <_>
          1 9 17 7 3.</_></rects>
      <tilted>0</tilted></_>
    <_>
      <rects>
        <_>
          2 0 13 24 -1.</_>
        <_>
          2 8 13 8 3.</_></rects>
      <tilted>0</tilted></_>
    <_>
      <rects>
        <_>
          2 7 6 12 -1.</_>
        <_>
          2 13 6 6 2.</_></rects>
      <tilted>0</tilted></_>
    <_>
      <rects>
        <_>
          2 9 4 5 -1.</_>
        <_>
          4 9 2 5 2.</_></rects>
      <tilted>0</tilted></_>
    <_>
      <rects>
        <_>
          2 13 3 6 -1.</_>
        <_>
          3 13 1 6 3.</_></rects>
      <tilted>0</tilted></_>
    <_>
      <rects>
        <_>
          2 14 3 6 -1.</_>
        <_>
          3 14 1 6 3.</_></rects>
      <tilted>0</tilted></_>
    <_>
      <rects>
        <_>
          2 23 34 1 -1.</_>
        <_>
          19 23 17 1 2.</_></rects>
      <tilted>0</tilted></_>
    <_>
      <rects>
        <_>
          3 0 11 18 -1.</_>
        <_>
          3 9 11 9 2.</_></rects>
      <tilted>0</tilted></_>
    <_>
      <rects>
        <_>
          3 3 30 5 -1.</_>
        <_>
          13 3 10 5 3.</_></rects>
      <tilted>0</tilted></_>
    <_>
      <rects>
        <_>
          3 4 30 4 -1.</_>
        <_>
          13 4 10 4 3.</_></rects>
      <tilted>0</tilted></_>
    <_>
      <rects>
        <_>
          3 16 3 7 -1.</_>
        <_>
          4 16 1 7 3.</_></rects>
      <tilted>0</tilted></_>
    <_>
      <rects>
        <_>
          4 0 21 5 -1.</_>
        <_>
          11 0 7 5 3.</_></rects>
      <tilted>0</tilted></_>
    <_>
      <rects>
        <_>
          4 2 24 17 -1.</_>
        <_>
          12 2 8 17 3.</_></rects>
      <tilted>0</tilted></_>
    <_>
      <rects>
        <_>
          4 23 32 1 -1.</_>
        <_>
          20 23 16 1 2.</_></rects>
      <tilted>0</tilted></_>
    <_>
      <rects>
        <_>
          5 1 21 17 -1.</_>
        <_>
          12 1 7 17 3.</_></rects>
      <tilted>0</tilted></_>
    <_>
      <rects>
        <_>
          5 11 16 12 -1.</_>
        <_>
          5 17 16 6 2.</_></rects>
      <tilted>0</tilted></_>
    <_>
      <rects>
        <_>
          6 0 2 2 -1.</_>
        <_>
          6 1 2 1 2.</_></rects>
      <tilted>0</tilted></_>
    <_>
      <rects>
        <_>
          6 0 27 12 -1.</_>
        <_>
          15 0 9 12 3.</_></rects>
      <tilted>0</tilted></_>
    <_>
      <rects>
        <_>
          6 0 21 9 -1.</_>
        <_>
          6 3 21 3 3.</_></rects>
      <tilted>0</tilted></_>
    <_>
      <rects>
        <_>
          6 1 4 8 -1.</_>
        <_>
          8 1 2 8 2.</_></rects>
      <tilted>0</tilted></_>
    <_>
      <rects>
        <_>
          7 0 2 2 -1.</_>
        <_>
          7 1 2 1 2.</_></rects>
      <tilted>0</tilted></_>
    <_>
      <rects>
        <_>
          7 0 15 15 -1.</_>
        <_>
          12 0 5 15 3.</_></rects>
      <tilted>0</tilted></_>
    <_>
      <rects>
        <_>
          7 2 15 12 -1.</_>
        <_>
          12 2 5 12 3.</_></rects>
      <tilted>0</tilted></_>
    <_>
      <rects>
        <_>
          8 1 4 7 -1.</_>
        <_>
          10 1 2 7 2.</_></rects>
      <tilted>0</tilted></_>
    <_>
      <rects>
        <_>
          8 8 2 11 -1.</_>
        <_>
          9 8 1 11 2.</_></rects>
      <tilted>0</tilted></_>
    <_>
      <rects>
        <_>
          9 0 27 12 -1.</_>
        <_>
          18 0 9 12 3.</_></rects>
      <tilted>0</tilted></_>
    <_>
      <rects>
        <_>
          9 1 8 10 -1.</_>
        <_>
          9 1 4 5 2.</_>
        <_>
          13 6 4 5 2.</_></rects>
      <tilted>0</tilted></_>
    <_>
      <rects>
        <_>
          9 7 2 12 -1.</_>
        <_>
          10 7 1 12 2.</_></rects>
      <tilted>0</tilted></_>
    <_>
      <rects>
        <_>
          9 10 6 6 -1.</_>
        <_>
          12 10 3 6 2.</_></rects>
      <tilted>0</tilted></_>
    <_>
      <rects>
        <_>
          10 0 1 2 -1.</_>
        <_>
          10 1 1 1 2.</_></rects>
      <tilted>0</tilted></_>
    <_>
      <rects>
        <_>
          10 0 15 4 -1.</_>
        <_>
          15 0 5 4 3.</_></rects>
      <tilted>0</tilted></_>
    <_>
      <rects>
        <_>
          10 3 4 5 -1.</_>
        <_>
          12 3 2 5 2.</_></rects>
      <tilted>0</tilted></_>
    <_>
      <rects>
        <_>
          10 3 21 4 -1.</_>
        <_>
          10 5 21 2 2.</_></rects>
      <tilted>0</tilted></_>
    <_>
      <rects>
        <_>
          11 2 18 2 -1.</_>
        <_>
          17 2 6 2 3.</_></rects>
      <tilted>0</tilted></_>
    <_>
      <rects>
        <_>
          12 0 2 15 -1.</_>
        <_>
          12 5 2 5 3.</_></rects>
      <tilted>0</tilted></_>
    <_>
      <rects>
        <_>
          12 10 15 14 -1.</_>
        <_>
          12 17 15 7 2.</_></rects>
      <tilted>0</tilted></_>
    <_>
      <rects>
        <_>
          13 1 14 8 -1.</_>
        <_>
          13 5 14 4 2.</_></rects>
      <tilted>0</tilted></_>
    <_>
      <rects>
        <_>
          14 3 22 1 -1.</_>
        <_>
          25 3 11 1 2.</_></rects>
      <tilted>0</tilted></_>
    <_>
      <rects>
        <_>
          15 2 21 3 -1.</_>
        <_>
          15 3 21 1 3.</_></rects>
      <tilted>0</tilted></_>
    <_>
      <rects>
        <_>
          15 3 18 1 -1.</_>
        <_>
          24 3 9 1 2.</_></rects>
      <tilted>0</tilted></_>
    <_>
      <rects>
        <_>
          16 1 3 10 -1.</_>
        <_>
          17 1 1 10 3.</_></rects>
      <tilted>0</tilted></_>
    <_>
      <rects>
        <_>
          16 1 20 6 -1.</_>
        <_>
          26 1 10 6 2.</_></rects>
      <tilted>0</tilted></_>
    <_>
      <rects>
        <_>
          16 2 9 11 -1.</_>
        <_>
          19 2 3 11 3.</_></rects>
      <tilted>0</tilted></_>
    <_>
      <rects>
        <_>
          17 0 9 13 -1.</_>
        <_>
          20 0 3 13 3.</_></rects>
      <tilted>0</tilted></_>
    <_>
      <rects>
        <_>
          17 1 9 5 -1.</_>
        <_>
          20 1 3 5 3.</_></rects>
      <tilted>0</tilted></_>
    <_>
      <rects>
        <_>
          18 0 18 3 -1.</_>
        <_>
          27 0 9 3 2.</_></rects>
      <tilted>0</tilted></_>
    <_>
      <rects>
        <_>
          18 0 18 10 -1.</_>
        <_>
          27 0 9 10 2.</_></rects>
      <tilted>0</tilted></_>
    <_>
      <rects>
        <_>
          18 0 18 24 -1.</_>
        <_>
          18 0 9 12 2.</_>
        <_>
          27 12 9 12 2.</_></rects>
      <tilted>0</tilted></_>
    <_>
      <rects>
        <_>
          18 3 3 11 -1.</_>
        <_>
          19 3 1 11 3.</_></rects>
      <tilted>0</tilted></_>
    <_>
      <rects>
        <_>
          19 0 15 7 -1.</_>
        <_>
          24 0 5 7 3.</_></rects>
      <tilted>0</tilted></_>
    <_>
      <rects>
        <_>
          19 0 16 14 -1.</_>
        <_>
          27 0 8 14 2.</_></rects>
      <tilted>0</tilted></_>
    <_>
      <rects>
        <_>
          19 2 9 21 -1.</_>
        <_>
          19 9 9 7 3.</_></rects>
      <tilted>0</tilted></_>
    <_>
      <rects>
        <_>
          20 0 9 10 -1.</_>
        <_>
          23 0 3 10 3.</_></rects>
      <tilted>0</tilted></_>
    <_>
      <rects>
        <_>
          20 0 14 24 -1.</_>
        <_>
          27 0 7 24 2.</_></rects>
      <tilted>0</tilted></_>
    <_>
      <rects>
        <_>
          20 0 15 3 -1.</_>
        <_>
          20 1 15 1 3.</_></rects>
      <tilted>0</tilted></_>
    <_>
      <rects>
        <_>
          21 0 4 7 -1.</_>
        <_>
          23 0 2 7 2.</_></rects>
      <tilted>0</tilted></_>
    <_>
      <rects>
        <_>
          22 1 3 3 -1.</_>
        <_>
          23 1 1 3 3.</_></rects>
      <tilted>0</tilted></_>
    <_>
      <rects>
        <_>
          22 1 3 10 -1.</_>
        <_>
          23 1 1 10 3.</_></rects>
      <tilted>0</tilted></_>
    <_>
      <rects>
        <_>
          22 2 3 16 -1.</_>
        <_>
          23 2 1 16 3.</_></rects>
      <tilted>0</tilted></_>
    <_>
      <rects>
        <_>
          22 6 8 13 -1.</_>
        <_>
          26 6 4 13 2.</_></rects>
      <tilted>0</tilted></_>
    <_>
      <rects>
        <_>
          22 8 10 8 -1.</_>
        <_>
          27 8 5 8 2.</_></rects>
      <tilted>0</tilted></_>
    <_>
      <rects>
        <_>
          23 10 4 8 -1.</_>
        <_>
          25 10 2 8 2.</_></rects>
      <tilted>0</tilted></_>
    <_>
      <rects>
        <_>
          24 6 4 9 -1.</_>
        <_>
          26 6 2 9 2.</_></rects>
      <tilted>0</tilted></_>
    <_>
      <rects>
        <_>
          25 2 5 12 -1.</_>
        <_>
          25 6 5 4 3.</_></rects>
      <tilted>0</tilted></_>
    <_>
      <rects>
        <_>
          25 4 4 5 -1.</_>
        <_>
          27 4 2 5 2.</_></rects>
      <tilted>0</tilted></_>
    <_>
      <rects>
        <_>
          28 2 1 2 -1.</_>
        <_>
          28 3 1 1 2.</_></rects>
      <tilted>0</tilted></_>
    <_>
      <rects>
        <_>
          31 0 1 6 -1.</_>
        <_>
          31 3 1 3 2.</_></rects>
      <tilted>0</tilted></_>
    <_>
      <rects>
        <_>
          31 17 1 4 -1.</_>
        <_>
          31 19 1 2 2.</_></rects>
      <tilted>0</tilted></_>
    <_>
      <rects>
        <_>
          31 20 3 3 -1.</_>
        <_>
          32 20 1 3 3.</_></rects>
      <tilted>0</tilted></_>
    <_>
      <rects>
        <_>
          32 19 3 3 -1.</_>
        <_>
          33 19 1 3 3.</_></rects>
      <tilted>0</tilted></_>
    <_>
      <rects>
        <_>
          33 2 1 2 -1.</_>
        <_>
          33 3 1 1 2.</_></rects>
      <tilted>0</tilted></_>
    <_>
      <rects>
        <_>
          33 13 3 7 -1.</_>
        <_>
          34 13 1 7 3.</_></rects>
      <tilted>0</tilted></_>
    <_>
      <rects>
        <_>
          33 14 3 7 -1.</_>
        <_>
          34 14 1 7 3.</_></rects>
      <tilted>0</tilted></_>
    <_>
      <rects>
        <_>
          33 15 3 2 -1.</_>
        <_>
          34 15 1 2 3.</_></rects>
      <tilted>0</tilted></_>
    <_>
      <rects>
        <_>
          33 15 3 3 -1.</_>
        <_>
          34 15 1 3 3.</_></rects>
      <tilted>0</tilted></_>
    <_>
      <rects>
        <_>
          34 1 1 4 -1.</_>
        <_>
          34 3 1 2 2.</_></rects>
      <tilted>0</tilted></_>
    <_>
      <rects>
        <_>
          34 16 1 4 -1.</_>
        <_>
          34 18 1 2 2.</_></rects>
      <tilted>0</tilted></_>
    <_>
      <rects>
        <_>
          34 20 2 2 -1.</_>
        <_>
          34 21 2 1 2.</_></rects>
      <tilted>0</tilted></_>
    <_>
      <rects>
        <_>
          35 0 1 6 -1.</_>
        <_>
          35 3 1 3 2.</_></rects>
      <tilted>0</tilted></_>
    <_>
      <rects>
        <_>
          35 6 1 16 -1.</_>
        <_>
          35 14 1 8 2.</_></rects>
      <tilted>0</tilted></_></features></cascade>
</opencv_storage>
