<?xml version="1.0"?>
<opencv_storage>
<cascade>
  <stageType>BOOST</stageType>
  <featureType>HAAR</featureType>
  <height>24</height>
  <width>36</width>
  <stageParams>
    <boostType>GAB</boostType>
    <minHitRate>9.9500000476837158e-01</minHitRate>
    <maxFalseAlarm>5.0000000000000000e-01</maxFalseAlarm>
    <weightTrimRate>9.4999998807907104e-01</weightTrimRate>
    <maxDepth>1</maxDepth>
    <maxWeakCount>100</maxWeakCount></stageParams>
  <featureParams>
    <maxCatCount>0</maxCatCount>
    <featSize>1</featSize>
    <mode>BASIC</mode></featureParams>
  <stageNum>13</stageNum>
  <stages>
    <!-- stage 0 -->
    <_>
      <maxWeakCount>6</maxWeakCount>
      <stageThreshold>-1.3531692028045654e+00</stageThreshold>
      <weakClassifiers>
        <_>
          <internalNodes>
            0 -1 39 -5.1136333495378494e-02</internalNodes>
          <leafValues>
            5.3846156597137451e-01 -8.5389930009841919e-01</leafValues></_>
        <_>
          <internalNodes>
            0 -1 86 4.1936777415685356e-04</internalNodes>
          <leafValues>
            -7.6804876327514648e-01 3.3668816089630127e-01</leafValues></_>
        <_>
          <internalNodes>
            0 -1 13 -4.7531843185424805e-02</internalNodes>
          <leafValues>
            4.0106710791587830e-01 -6.3864642381668091e-01</leafValues></_>
        <_>
          <internalNodes>
            0 -1 84 -6.2574329786002636e-04</internalNodes>
          <leafValues>
            3.0293795466423035e-01 -7.6898753643035889e-01</leafValues></_>
        <_>
          <internalNodes>
            0 -1 10 1.1674332432448864e-02</internalNodes>
          <leafValues>
            2.2711166739463806e-01 -1.</leafValues></_>
        <_>
          <internalNodes>
            0 -1 62 9.6527370624244213e-04</internalNodes>
          <leafValues>
            -5.5934929847717285e-01 4.0958759188652039e-01</leafValues></_></weakClassifiers></_>
    <!-- stage 1 -->
    <_>
      <maxWeakCount>7</maxWeakCount>
      <stageThreshold>-1.7060810327529907e+00</stageThreshold>
      <weakClassifiers>
        <_>
          <internalNodes>
            0 -1 26 -1.3545919954776764e-01</internalNodes>
          <leafValues>
            8.4415584802627563e-01 -7.9054677486419678e-01</leafValues></_>
        <_>
          <internalNodes>
            0 -1 0 8.8693643920123577e-04</internalNodes>
          <leafValues>
            -6.7310309410095215e-01 4.3547305464744568e-01</leafValues></_>
        <_>
          <internalNodes>
            0 -1 45 2.0630717277526855e-02</internalNodes>
          <leafValues>
            -6.9768494367599487e-01 4.5582392811775208e-01</leafValues></_>
        <_>
          <internalNodes>
            0 -1 2 -6.1146561056375504e-03</internalNodes>
          <leafValues>
            5.6150329113006592e-01 -4.2616334557533264e-01</leafValues></_>
        <_>
          <internalNodes>
            0 -1 46 -3.0052734538912773e-02</internalNodes>
          <leafValues>
            8.3167970180511475e-01 -2.7969720959663391e-01</leafValues></_>
        <_>
          <internalNodes>
            0 -1 63 4.3449662625789642e-03</internalNodes>
          <leafValues>
            -3.3399531245231628e-01 7.8420275449752808e-01</leafValues></_>
        <_>
          <internalNodes>
            0 -1 9 -1.5849983319640160e-02</internalNodes>
          <leafValues>
            -9.8079103231430054e-01 3.8653346896171570e-01</leafValues></_></weakClassifiers></_>
    <!-- stage 2 -->
    <_>
      <maxWeakCount>5</maxWeakCount>
      <stageThreshold>-1.6282289028167725e+00</stageThreshold>
      <weakClassifiers>
        <_>
          <internalNodes>
            0 -1 25 -3.2888002693653107e-02</internalNodes>
          <leafValues>
            1.3537117838859558e-01 -8.8349515199661255e-01</leafValues></_>
        <_>
          <internalNodes>
            0 -1 81 -8.5142984986305237e-02</internalNodes>
          <leafValues>
            2.7740645408630371e-01 -6.4821773767471313e-01</leafValues></_>
        <_>
          <internalNodes>
            0 -1 16 -2.6331409811973572e-02</internalNodes>
          <leafValues>
            3.7143570184707642e-01 -5.5733406543731689e-01</leafValues></_>
        <_>
          <internalNodes>
            0 -1 29 5.4329060018062592e-02</internalNodes>
          <leafValues>
            -2.9151085019111633e-01 8.9966654777526855e-01</leafValues></_>
        <_>
          <internalNodes>
            0 -1 4 -1.7830800497904420e-03</internalNodes>
          <leafValues>
            5.2899330854415894e-01 -4.3884852528572083e-01</leafValues></_></weakClassifiers></_>
    <!-- stage 3 -->
    <_>
      <maxWeakCount>8</maxWeakCount>
      <stageThreshold>-1.9120624065399170e+00</stageThreshold>
      <weakClassifiers>
        <_>
          <internalNodes>
            0 -1 24 -1.3146993517875671e-01</internalNodes>
          <leafValues>
            5.3623187541961670e-01 -7.5896966457366943e-01</leafValues></_>
        <_>
          <internalNodes>
            0 -1 91 5.0934014143422246e-04</internalNodes>
          <leafValues>
            -7.5373768806457520e-01 2.6676896214485168e-01</leafValues></_>
        <_>
          <internalNodes>
            0 -1 11 4.8862665425986052e-04</internalNodes>
          <leafValues>
            -4.8087006807327271e-01 4.2664912343025208e-01</leafValues></_>
        <_>
          <internalNodes>
            0 -1 34 4.6937426668591797e-04</internalNodes>
          <leafValues>
            -4.2002329230308533e-01 4.6042656898498535e-01</leafValues></_>
        <_>
          <internalNodes>
            0 -1 54 1.2486490420997143e-02</internalNodes>
          <leafValues>
            -5.9096628427505493e-01 3.3768710494041443e-01</leafValues></_>
        <_>
          <internalNodes>
            0 -1 37 -1.6381085151806474e-04</internalNodes>
          <leafValues>
            -6.2589722871780396e-01 3.8928323984146118e-01</leafValues></_>
        <_>
          <internalNodes>
            0 -1 64 -5.5061643943190575e-03</internalNodes>
          <leafValues>
            6.2892615795135498e-01 -3.3948925137519836e-01</leafValues></_>
        <_>
          <internalNodes>
            0 -1 76 2.1594295685645193e-04</internalNodes>
          <leafValues>
            2.2171846032142639e-01 -9.8232012987136841e-01</leafValues></_></weakClassifiers></_>
    <!-- stage 4 -->
    <_>
      <maxWeakCount>7</maxWeakCount>
      <stageThreshold>-1.4479020833969116e+00</stageThreshold>
      <weakClassifiers>
        <_>
          <internalNodes>
            0 -1 55 -7.9122409224510193e-02</internalNodes>
          <leafValues>
            4.9367088079452515e-01 -7.6787370443344116e-01</leafValues></_>
        <_>
          <internalNodes>
            0 -1 41 -3.1113442033529282e-02</internalNodes>
          <leafValues>
            5.7122153043746948e-01 -5.2368140220642090e-01</leafValues></_>
        <_>
          <internalNodes>
            0 -1 56 1.2855906970798969e-04</internalNodes>
          <leafValues>
            2.3069866001605988e-01 -8.0118107795715332e-01</leafValues></_>
        <_>
          <internalNodes>
            0 -1 50 -1.1320924386382103e-02</internalNodes>
          <leafValues>
            -8.6067193746566772e-01 1.9949768483638763e-01</leafValues></_>
        <_>
          <internalNodes>
            0 -1 51 5.7254200801253319e-03</internalNodes>
          <leafValues>
            -2.4766103923320770e-01 8.5530602931976318e-01</leafValues></_>
        <_>
          <internalNodes>
            0 -1 88 -1.7549708718433976e-04</internalNodes>
          <leafValues>
            -8.8672071695327759e-01 2.7189093828201294e-01</leafValues></_>
        <_>
          <internalNodes>
            0 -1 66 -1.2757206568494439e-03</internalNodes>
          <leafValues>
            4.4939637184143066e-01 -4.3884527683258057e-01</leafValues></_></weakClassifiers></_>
    <!-- stage 5 -->
    <_>
      <maxWeakCount>8</maxWeakCount>
      <stageThreshold>-2.0786497592926025e+00</stageThreshold>
      <weakClassifiers>
        <_>
          <internalNodes>
            0 -1 42 -8.1162706017494202e-02</internalNodes>
          <leafValues>
            6.8965518474578857e-01 -7.5409835577011108e-01</leafValues></_>
        <_>
          <internalNodes>
            0 -1 77 8.6191517766565084e-05</internalNodes>
          <leafValues>
            -6.4104670286178589e-01 1.9878901541233063e-01</leafValues></_>
        <_>
          <internalNodes>
            0 -1 3 6.9302674382925034e-03</internalNodes>
          <leafValues>
            -6.3829010725021362e-01 2.9248562455177307e-01</leafValues></_>
        <_>
          <internalNodes>
            0 -1 72 -7.7292451169341803e-04</internalNodes>
          <leafValues>
            2.5082236528396606e-01 -6.5610259771347046e-01</leafValues></_>
        <_>
          <internalNodes>
            0 -1 90 1.1220303713344038e-04</internalNodes>
          <leafValues>
            2.7279192209243774e-01 -8.3688771724700928e-01</leafValues></_>
        <_>
          <internalNodes>
            0 -1 32 3.5279997973702848e-05</internalNodes>
          <leafValues>
            -5.2260804176330566e-01 3.1536045670509338e-01</leafValues></_>
        <_>
          <internalNodes>
            0 -1 75 -3.2464112155139446e-04</internalNodes>
          <leafValues>
            4.3483650684356689e-01 -4.1236793994903564e-01</leafValues></_>
        <_>
          <internalNodes>
            0 -1 53 5.3996234782971442e-05</internalNodes>
          <leafValues>
            -5.4699832201004028e-01 3.4229639172554016e-01</leafValues></_></weakClassifiers></_>
    <!-- stage 6 -->
    <_>
      <maxWeakCount>8</maxWeakCount>
      <stageThreshold>-1.6677405834197998e+00</stageThreshold>
      <weakClassifiers>
        <_>
          <internalNodes>
            0 -1 27 -1.3687649369239807e-01</internalNodes>
          <leafValues>
            5.4098361730575562e-01 -7.4977171421051025e-01</leafValues></_>
        <_>
          <internalNodes>
            0 -1 60 3.6877311766147614e-02</internalNodes>
          <leafValues>
            -5.7735520601272583e-01 2.7213615179061890e-01</leafValues></_>
        <_>
          <internalNodes>
            0 -1 23 -6.0999783454462886e-04</internalNodes>
          <leafValues>
            2.8192901611328125e-01 -5.5620396137237549e-01</leafValues></_>
        <_>
          <internalNodes>
            0 -1 6 -8.7709886429365724e-06</internalNodes>
          <leafValues>
            2.2025191783905029e-01 -6.6801673173904419e-01</leafValues></_>
        <_>
          <internalNodes>
            0 -1 8 -2.4568015942350030e-04</internalNodes>
          <leafValues>
            2.4548085033893585e-01 -6.4405941963195801e-01</leafValues></_>
        <_>
          <internalNodes>
            0 -1 33 -5.5208168923854828e-02</internalNodes>
          <leafValues>
            3.6226582527160645e-01 -5.1841485500335693e-01</leafValues></_>
        <_>
          <internalNodes>
            0 -1 21 1.8717451021075249e-03</internalNodes>
          <leafValues>
            -3.2721763849258423e-01 4.9325528740882874e-01</leafValues></_>
        <_>
          <internalNodes>
            0 -1 17 -5.7833977043628693e-02</internalNodes>
          <leafValues>
            8.3209949731826782e-01 -2.2498297691345215e-01</leafValues></_></weakClassifiers></_>
    <!-- stage 7 -->
    <_>
      <maxWeakCount>7</maxWeakCount>
      <stageThreshold>-1.2243111133575439e+00</stageThreshold>
      <weakClassifiers>
        <_>
          <internalNodes>
            0 -1 59 7.0626968517899513e-03</internalNodes>
          <leafValues>
            -7.5068742036819458e-01 4.7692307829856873e-01</leafValues></_>
        <_>
          <internalNodes>
            0 -1 47 -2.9675789177417755e-02</internalNodes>
          <leafValues>
            3.0663743615150452e-01 -5.1415485143661499e-01</leafValues></_>
        <_>
          <internalNodes>
            0 -1 87 1.8433299555908889e-04</internalNodes>
          <leafValues>
            2.3197194933891296e-01 -7.8957247734069824e-01</leafValues></_>
        <_>
          <internalNodes>
            0 -1 89 -7.5317766459193081e-05</internalNodes>
          <leafValues>
            -9.1496324539184570e-01 1.4440806210041046e-01</leafValues></_>
        <_>
          <internalNodes>
            0 -1 1 -8.3890678361058235e-03</internalNodes>
          <leafValues>
            2.3507112264633179e-01 -6.8802589178085327e-01</leafValues></_>
        <_>
          <internalNodes>
            0 -1 58 -1.1419367510825396e-03</internalNodes>
          <leafValues>
            -9.7809433937072754e-01 1.5022467076778412e-01</leafValues></_>
        <_>
          <internalNodes>
            0 -1 36 2.2719221306033432e-04</internalNodes>
          <leafValues>
            -4.8256555199623108e-01 3.4845986962318420e-01</leafValues></_></weakClassifiers></_>
    <!-- stage 8 -->
    <_>
      <maxWeakCount>7</maxWeakCount>
      <stageThreshold>-1.3718264102935791e+00</stageThreshold>
      <weakClassifiers>
        <_>
          <internalNodes>
            0 -1 52 9.7714178264141083e-03</internalNodes>
          <leafValues>
            -7.5525116920471191e-01 6.3934427499771118e-01</leafValues></_>
        <_>
          <internalNodes>
            0 -1 44 -2.4970188736915588e-02</internalNodes>
          <leafValues>
            7.2325831651687622e-01 -4.2381262779235840e-01</leafValues></_>
        <_>
          <internalNodes>
            0 -1 38 8.9225759729743004e-03</internalNodes>
          <leafValues>
            -2.3539321124553680e-01 7.1055221557617188e-01</leafValues></_>
        <_>
          <internalNodes>
            0 -1 19 -2.3576358333230019e-02</internalNodes>
          <leafValues>
            -8.0467897653579712e-01 2.6289761066436768e-01</leafValues></_>
        <_>
          <internalNodes>
            0 -1 28 -1.7172844382002950e-03</internalNodes>
          <leafValues>
            3.4938481450080872e-01 -4.5090642571449280e-01</leafValues></_>
        <_>
          <internalNodes>
            0 -1 83 1.0919614578597248e-04</internalNodes>
          <leafValues>
            2.2959955036640167e-01 -7.7577185630798340e-01</leafValues></_>
        <_>
          <internalNodes>
            0 -1 20 1.3568848953582346e-04</internalNodes>
          <leafValues>
            2.0611996948719025e-01 -7.6309710741043091e-01</leafValues></_></weakClassifiers></_>
    <!-- stage 9 -->
    <_>
      <maxWeakCount>9</maxWeakCount>
      <stageThreshold>-1.3442401885986328e+00</stageThreshold>
      <weakClassifiers>
        <_>
          <internalNodes>
            0 -1 49 -1.5956377983093262e-01</internalNodes>
          <leafValues>
            5.5102038383483887e-01 -7.3622405529022217e-01</leafValues></_>
        <_>
          <internalNodes>
            0 -1 71 1.5417124377563596e-03</internalNodes>
          <leafValues>
            -5.7417958974838257e-01 3.0509555339813232e-01</leafValues></_>
        <_>
          <internalNodes>
            0 -1 48 -2.2515233606100082e-02</internalNodes>
          <leafValues>
            4.5126229524612427e-01 -3.9970606565475464e-01</leafValues></_>
        <_>
          <internalNodes>
            0 -1 15 5.6093102321028709e-03</internalNodes>
          <leafValues>
            1.5898314118385315e-01 -9.1029697656631470e-01</leafValues></_>
        <_>
          <internalNodes>
            0 -1 68 -4.5787822455167770e-04</internalNodes>
          <leafValues>
            5.5245298147201538e-01 -2.8907996416091919e-01</leafValues></_>
        <_>
          <internalNodes>
            0 -1 30 -1.2440079450607300e-01</internalNodes>
          <leafValues>
            5.1217520236968994e-01 -3.7762475013732910e-01</leafValues></_>
        <_>
          <internalNodes>
            0 -1 80 -3.0985607736511156e-05</internalNodes>
          <leafValues>
            3.8826435804367065e-01 -4.7437855601310730e-01</leafValues></_>
        <_>
          <internalNodes>
            0 -1 7 1.9303144654259086e-05</internalNodes>
          <leafValues>
            2.3138496279716492e-01 -7.6392912864685059e-01</leafValues></_>
        <_>
          <internalNodes>
            0 -1 18 5.9372012037783861e-04</internalNodes>
          <leafValues>
            -3.8582152128219604e-01 4.0772286057472229e-01</leafValues></_></weakClassifiers></_>
    <!-- stage 10 -->
    <_>
      <maxWeakCount>8</maxWeakCount>
      <stageThreshold>-1.3734972476959229e+00</stageThreshold>
      <weakClassifiers>
        <_>
          <internalNodes>
            0 -1 31 -1.7718810588121414e-02</internalNodes>
          <leafValues>
            3.4328359365463257e-01 -7.4471992254257202e-01</leafValues></_>
        <_>
          <internalNodes>
            0 -1 82 1.8276847549714148e-04</internalNodes>
          <leafValues>
            -5.5268579721450806e-01 1.8904346227645874e-01</leafValues></_>
        <_>
          <internalNodes>
            0 -1 61 -1.8510891124606133e-02</internalNodes>
          <leafValues>
            4.1178309917449951e-01 -3.6611598730087280e-01</leafValues></_>
        <_>
          <internalNodes>
            0 -1 73 9.1507885372266173e-05</internalNodes>
          <leafValues>
            1.7638790607452393e-01 -8.9149874448776245e-01</leafValues></_>
        <_>
          <internalNodes>
            0 -1 40 2.0634964108467102e-02</internalNodes>
          <leafValues>
            1.5264120697975159e-01 -1.</leafValues></_>
        <_>
          <internalNodes>
            0 -1 22 -3.7050604820251465e-02</internalNodes>
          <leafValues>
            8.9643490314483643e-01 -2.2637897729873657e-01</leafValues></_>
        <_>
          <internalNodes>
            0 -1 12 -5.1160279661417007e-02</internalNodes>
          <leafValues>
            3.1526237726211548e-01 -5.6573325395584106e-01</leafValues></_>
        <_>
          <internalNodes>
            0 -1 78 -2.9675932601094246e-03</internalNodes>
          <leafValues>
            -9.3822723627090454e-01 1.6209952533245087e-01</leafValues></_></weakClassifiers></_>
    <!-- stage 11 -->
    <_>
      <maxWeakCount>8</maxWeakCount>
      <stageThreshold>-1.5489021539688110e+00</stageThreshold>
      <weakClassifiers>
        <_>
          <internalNodes>
            0 -1 69 -4.2599894106388092e-02</internalNodes>
          <leafValues>
            7.0212763547897339e-01 -7.4030655622482300e-01</leafValues></_>
        <_>
          <internalNodes>
            0 -1 65 -1.2397716054692864e-03</internalNodes>
          <leafValues>
            2.9560211300849915e-01 -5.2438348531723022e-01</leafValues></_>
        <_>
          <internalNodes>
            0 -1 85 -2.4333527835551649e-04</internalNodes>
          <leafValues>
            -8.4162849187850952e-01 2.3212908208370209e-01</leafValues></_>
        <_>
          <internalNodes>
            0 -1 92 -1.3022439088672400e-04</internalNodes>
          <leafValues>
            3.3327099680900574e-01 -5.0061458349227905e-01</leafValues></_>
        <_>
          <internalNodes>
            0 -1 57 6.9054454797878861e-05</internalNodes>
          <leafValues>
            1.9324277341365814e-01 -7.4019181728363037e-01</leafValues></_>
        <_>
          <internalNodes>
            0 -1 74 -6.9979159161448479e-04</internalNodes>
          <leafValues>
            4.8503935337066650e-01 -3.2313033938407898e-01</leafValues></_>
        <_>
          <internalNodes>
            0 -1 35 -5.5465944111347198e-02</internalNodes>
          <leafValues>
            -8.0575114488601685e-01 2.0981989800930023e-01</leafValues></_>
        <_>
          <internalNodes>
            0 -1 79 1.3961122022010386e-04</internalNodes>
          <leafValues>
            1.6992889344692230e-01 -8.1706345081329346e-01</leafValues></_></weakClassifiers></_>
    <!-- stage 12 -->
    <_>
      <maxWeakCount>5</maxWeakCount>
      <stageThreshold>-1.0683836936950684e+00</stageThreshold>
      <weakClassifiers>
        <_>
          <internalNodes>
            0 -1 67 9.8724193871021271e-02</internalNodes>
          <leafValues>
            -7.3107749223709106e-01 1.</leafValues></_>
        <_>
          <internalNodes>
            0 -1 5 -3.0155254527926445e-02</internalNodes>
          <leafValues>
            5.3975695371627808e-01 -4.2782023549079895e-01</leafValues></_>
        <_>
          <internalNodes>
            0 -1 14 -1.5081804303918034e-04</internalNodes>
          <leafValues>
            -1. 1.9327169656753540e-01</leafValues></_>
        <_>
          <internalNodes>
            0 -1 43 -9.8802358843386173e-04</internalNodes>
          <leafValues>
            3.0575254559516907e-01 -5.0747901201248169e-01</leafValues></_>
        <_>
          <internalNodes>
            0 -1 70 -2.7363788103684783e-04</internalNodes>
          <leafValues>
            4.0472126007080078e-01 -3.8262408971786499e-01</leafValues></_></weakClassifiers></_></stages>
  <features>
    <_>
      <rects>
        <_>
          0 0 4 2 -1.</_>
        <_>
          0 1 4 1 2.</_></rects>
      <tilted>0</tilted></_>
    <_>
      <rects>
        <_>
          0 0 20 14 -1.</_>
        <_>
          10 0 10 14 2.</_></rects>
      <tilted>0</tilted></_>
    <_>
      <rects>
        <_>
          0 0 35 3 -1.</_>
        <_>
          0 1 35 1 3.</_></rects>
      <tilted>0</tilted></_>
    <_>
      <rects>
        <_>
          0 2 20 16 -1.</_>
        <_>
          0 2 10 8 2.</_>
        <_>
          10 10 10 8 2.</_></rects>
      <tilted>0</tilted></_>
    <_>
      <rects>
        <_>
          0 3 3 9 -1.</_>
        <_>
          0 6 3 3 3.</_></rects>
      <tilted>0</tilted></_>
    <_>
      <rects>
        <_>
          0 4 30 1 -1.</_>
        <_>
          10 4 10 1 3.</_></rects>
      <tilted>0</tilted></_>
    <_>
      <rects>
        <_>
          0 10 2 4 -1.</_>
        <_>
          0 12 2 2 2.</_></rects>
      <tilted>0</tilted></_>
    <_>
      <rects>
        <_>
          0 11 2 6 -1.</_>
        <_>
          0 14 2 3 2.</_></rects>
      <tilted>0</tilted></_>
    <_>
      <rects>
        <_>
          0 16 3 8 -1.</_>
        <_>
          0 20 3 4 2.</_></rects>
      <tilted>0</tilted></_>
    <_>
      <rects>
        <_>
          0 17 20 7 -1.</_>
        <_>
          10 17 10 7 2.</_></rects>
      <tilted>0</tilted></_>
    <_>
      <rects>
        <_>
          0 18 28 6 -1.</_>
        <_>
          14 18 14 6 2.</_></rects>
      <tilted>0</tilted></_>
    <_>
      <rects>
        <_>
          1 0 1 4 -1.</_>
        <_>
          1 2 1 2 2.</_></rects>
      <tilted>0</tilted></_>
    <_>
      <rects>
        <_>
          1 0 24 11 -1.</_>
        <_>
          13 0 12 11 2.</_></rects>
      <tilted>0</tilted></_>
    <_>
      <rects>
        <_>
          1 1 33 6 -1.</_>
        <_>
          12 1 11 6 3.</_></rects>
      <tilted>0</tilted></_>
    <_>
      <rects>
        <_>
          1 17 2 5 -1.</_>
        <_>
          2 17 1 5 2.</_></rects>
      <tilted>0</tilted></_>
    <_>
      <rects>
        <_>
          1 18 22 6 -1.</_>
        <_>
          12 18 11 6 2.</_></rects>
      <tilted>0</tilted></_>
    <_>
      <rects>
        <_>
          2 1 20 9 -1.</_>
        <_>
          12 1 10 9 2.</_></rects>
      <tilted>0</tilted></_>
    <_>
      <rects>
        <_>
          3 1 15 16 -1.</_>
        <_>
          8 1 5 16 3.</_></rects>
      <tilted>0</tilted></_>
    <_>
      <rects>
        <_>
          3 6 4 13 -1.</_>
        <_>
          5 6 2 13 2.</_></rects>
      <tilted>0</tilted></_>
    <_>
      <rects>
        <_>
          4 0 32 2 -1.</_>
        <_>
          20 0 16 2 2.</_></rects>
      <tilted>0</tilted></_>
    <_>
      <rects>
        <_>
          4 14 3 7 -1.</_>
        <_>
          5 14 1 7 3.</_></rects>
      <tilted>0</tilted></_>
    <_>
      <rects>
        <_>
          6 1 4 19 -1.</_>
        <_>
          8 1 2 19 2.</_></rects>
      <tilted>0</tilted></_>
    <_>
      <rects>
        <_>
          7 4 12 13 -1.</_>
        <_>
          11 4 4 13 3.</_></rects>
      <tilted>0</tilted></_>
    <_>
      <rects>
        <_>
          7 5 6 4 -1.</_>
        <_>
          7 7 6 2 2.</_></rects>
      <tilted>0</tilted></_>
    <_>
      <rects>
        <_>
          7 6 27 4 -1.</_>
        <_>
          16 6 9 4 3.</_></rects>
      <tilted>0</tilted></_>
    <_>
      <rects>
        <_>
          8 0 12 11 -1.</_>
        <_>
          14 0 6 11 2.</_></rects>
      <tilted>0</tilted></_>
    <_>
      <rects>
        <_>
          8 5 24 7 -1.</_>
        <_>
          16 5 8 7 3.</_></rects>
      <tilted>0</tilted></_>
    <_>
      <rects>
        <_>
          8 6 27 4 -1.</_>
        <_>
          17 6 9 4 3.</_></rects>
      <tilted>0</tilted></_>
    <_>
      <rects>
        <_>
          8 10 14 4 -1.</_>
        <_>
          8 12 14 2 2.</_></rects>
      <tilted>0</tilted></_>
    <_>
      <rects>
        <_>
          9 0 12 9 -1.</_>
        <_>
          15 0 6 9 2.</_></rects>
      <tilted>0</tilted></_>
    <_>
      <rects>
        <_>
          9 0 24 12 -1.</_>
        <_>
          17 0 8 12 3.</_></rects>
      <tilted>0</tilted></_>
    <_>
      <rects>
        <_>
          9 1 4 6 -1.</_>
        <_>
          9 3 4 2 3.</_></rects>
      <tilted>0</tilted></_>
    <_>
      <rects>
        <_>
          10 0 2 14 -1.</_>
        <_>
          11 0 1 14 2.</_></rects>
      <tilted>0</tilted></_>
    <_>
      <rects>
        <_>
          10 0 26 24 -1.</_>
        <_>
          10 0 13 12 2.</_>
        <_>
          23 12 13 12 2.</_></rects>
      <tilted>0</tilted></_>
    <_>
      <rects>
        <_>
          10 3 2 14 -1.</_>
        <_>
          11 3 1 14 2.</_></rects>
      <tilted>0</tilted></_>
    <_>
      <rects>
        <_>
          10 3 9 10 -1.</_>
        <_>
          10 8 9 5 2.</_></rects>
      <tilted>0</tilted></_>
    <_>
      <rects>
        <_>
          10 7 2 16 -1.</_>
        <_>
          11 7 1 16 2.</_></rects>
      <tilted>0</tilted></_>
    <_>
      <rects>
        <_>
          10 22 17 2 -1.</_>
        <_>
          10 23 17 1 2.</_></rects>
      <tilted>0</tilted></_>
    <_>
      <rects>
        <_>
          11 0 9 9 -1.</_>
        <_>
          14 0 3 9 3.</_></rects>
      <tilted>0</tilted></_>
    <_>
      <rects>
        <_>
          11 0 12 15 -1.</_>
        <_>
          15 0 4 15 3.</_></rects>
      <tilted>0</tilted></_>
    <_>
      <rects>
        <_>
          11 0 9 16 -1.</_>
        <_>
          11 8 9 8 2.</_></rects>
      <tilted>0</tilted></_>
    <_>
      <rects>
        <_>
          11 1 9 14 -1.</_>
        <_>
          14 1 3 14 3.</_></rects>
      <tilted>0</tilted></_>
    <_>
      <rects>
        <_>
          11 6 24 3 -1.</_>
        <_>
          19 6 8 3 3.</_></rects>
      <tilted>0</tilted></_>
    <_>
      <rects>
        <_>
          11 10 3 10 -1.</_>
        <_>
          11 15 3 5 2.</_></rects>
      <tilted>0</tilted></_>
    <_>
      <rects>
        <_>
          12 0 6 17 -1.</_>
        <_>
          14 0 2 17 3.</_></rects>
      <tilted>0</tilted></_>
    <_>
      <rects>
        <_>
          12 0 22 21 -1.</_>
        <_>
          23 0 11 21 2.</_></rects>
      <tilted>0</tilted></_>
    <_>
      <rects>
        <_>
          12 1 9 18 -1.</_>
        <_>
          15 1 3 18 3.</_></rects>
      <tilted>0</tilted></_>
    <_>
      <rects>
        <_>
          12 1 9 21 -1.</_>
        <_>
          15 1 3 21 3.</_></rects>
      <tilted>0</tilted></_>
    <_>
      <rects>
        <_>
          12 2 9 22 -1.</_>
        <_>
          15 2 3 22 3.</_></rects>
      <tilted>0</tilted></_>
    <_>
      <rects>
        <_>
          12 5 24 6 -1.</_>
        <_>
          20 5 8 6 3.</_></rects>
      <tilted>0</tilted></_>
    <_>
      <rects>
        <_>
          12 19 24 5 -1.</_>
        <_>
          20 19 8 5 3.</_></rects>
      <tilted>0</tilted></_>
    <_>
      <rects>
        <_>
          13 0 3 16 -1.</_>
        <_>
          14 0 1 16 3.</_></rects>
      <tilted>0</tilted></_>
    <_>
      <rects>
        <_>
          13 0 3 22 -1.</_>
        <_>
          14 0 1 22 3.</_></rects>
      <tilted>0</tilted></_>
    <_>
      <rects>
        <_>
          13 0 22 4 -1.</_>
        <_>
          13 0 11 2 2.</_>
        <_>
          24 2 11 2 2.</_></rects>
      <tilted>0</tilted></_>
    <_>
      <rects>
        <_>
          13 0 22 5 -1.</_>
        <_>
          24 0 11 5 2.</_></rects>
      <tilted>0</tilted></_>
    <_>
      <rects>
        <_>
          13 1 12 15 -1.</_>
        <_>
          17 1 4 15 3.</_></rects>
      <tilted>0</tilted></_>
    <_>
      <rects>
        <_>
          13 22 10 2 -1.</_>
        <_>
          18 22 5 2 2.</_></rects>
      <tilted>0</tilted></_>
    <_>
      <rects>
        <_>
          13 23 8 1 -1.</_>
        <_>
          17 23 4 1 2.</_></rects>
      <tilted>0</tilted></_>
    <_>
      <rects>
        <_>
          13 23 12 1 -1.</_>
        <_>
          17 23 4 1 3.</_></rects>
      <tilted>0</tilted></_>
    <_>
      <rects>
        <_>
          14 0 3 15 -1.</_>
        <_>
          15 0 1 15 3.</_></rects>
      <tilted>0</tilted></_>
    <_>
      <rects>
        <_>
          14 0 14 23 -1.</_>
        <_>
          21 0 7 23 2.</_></rects>
      <tilted>0</tilted></_>
    <_>
      <rects>
        <_>
          14 1 9 23 -1.</_>
        <_>
          17 1 3 23 3.</_></rects>
      <tilted>0</tilted></_>
    <_>
      <rects>
        <_>
          14 1 16 2 -1.</_>
        <_>
          14 2 16 1 2.</_></rects>
      <tilted>0</tilted></_>
    <_>
      <rects>
        <_>
          14 2 6 7 -1.</_>
        <_>
          16 2 2 7 3.</_></rects>
      <tilted>0</tilted></_>
    <_>
      <rects>
        <_>
          15 0 14 3 -1.</_>
        <_>
          15 1 14 1 3.</_></rects>
      <tilted>0</tilted></_>
    <_>
      <rects>
        <_>
          22 0 10 2 -1.</_>
        <_>
          22 1 10 1 2.</_></rects>
      <tilted>0</tilted></_>
    <_>
      <rects>
        <_>
          22 3 2 6 -1.</_>
        <_>
          22 5 2 2 3.</_></rects>
      <tilted>0</tilted></_>
    <_>
      <rects>
        <_>
          22 6 12 6 -1.</_>
        <_>
          28 6 6 6 2.</_></rects>
      <tilted>0</tilted></_>
    <_>
      <rects>
        <_>
          23 1 8 11 -1.</_>
        <_>
          27 1 4 11 2.</_></rects>
      <tilted>0</tilted></_>
    <_>
      <rects>
        <_>
          23 8 10 10 -1.</_>
        <_>
          23 8 5 5 2.</_>
        <_>
          28 13 5 5 2.</_></rects>
      <tilted>0</tilted></_>
    <_>
      <rects>
        <_>
          24 2 6 11 -1.</_>
        <_>
          27 2 3 11 2.</_></rects>
      <tilted>0</tilted></_>
    <_>
      <rects>
        <_>
          25 1 2 4 -1.</_>
        <_>
          25 3 2 2 2.</_></rects>
      <tilted>0</tilted></_>
    <_>
      <rects>
        <_>
          25 16 7 8 -1.</_>
        <_>
          25 20 7 4 2.</_></rects>
      <tilted>0</tilted></_>
    <_>
      <rects>
        <_>
          25 21 4 2 -1.</_>
        <_>
          25 21 2 1 2.</_>
        <_>
          27 22 2 1 2.</_></rects>
      <tilted>0</tilted></_>
    <_>
      <rects>
        <_>
          26 3 6 2 -1.</_>
        <_>
          29 3 3 2 2.</_></rects>
      <tilted>0</tilted></_>
    <_>
      <rects>
        <_>
          27 0 6 2 -1.</_>
        <_>
          27 1 6 1 2.</_></rects>
      <tilted>0</tilted></_>
    <_>
      <rects>
        <_>
          27 18 3 3 -1.</_>
        <_>
          28 18 1 3 3.</_></rects>
      <tilted>0</tilted></_>
    <_>
      <rects>
        <_>
          29 2 1 2 -1.</_>
        <_>
          29 3 1 1 2.</_></rects>
      <tilted>0</tilted></_>
    <_>
      <rects>
        <_>
          30 4 6 3 -1.</_>
        <_>
          33 4 3 3 2.</_></rects>
      <tilted>0</tilted></_>
    <_>
      <rects>
        <_>
          30 21 4 3 -1.</_>
        <_>
          30 22 4 1 3.</_></rects>
      <tilted>0</tilted></_>
    <_>
      <rects>
        <_>
          31 0 4 1 -1.</_>
        <_>
          33 0 2 1 2.</_></rects>
      <tilted>0</tilted></_>
    <_>
      <rects>
        <_>
          31 0 4 24 -1.</_>
        <_>
          31 12 4 12 2.</_></rects>
      <tilted>0</tilted></_>
    <_>
      <rects>
        <_>
          31 2 1 2 -1.</_>
        <_>
          31 3 1 1 2.</_></rects>
      <tilted>0</tilted></_>
    <_>
      <rects>
        <_>
          32 12 3 10 -1.</_>
        <_>
          33 12 1 10 3.</_></rects>
      <tilted>0</tilted></_>
    <_>
      <rects>
        <_>
          32 12 3 8 -1.</_>
        <_>
          32 16 3 4 2.</_></rects>
      <tilted>0</tilted></_>
    <_>
      <rects>
        <_>
          32 14 3 8 -1.</_>
        <_>
          33 14 1 8 3.</_></rects>
      <tilted>0</tilted></_>
    <_>
      <rects>
        <_>
          33 1 1 4 -1.</_>
        <_>
          33 3 1 2 2.</_></rects>
      <tilted>0</tilted></_>
    <_>
      <rects>
        <_>
          33 13 3 5 -1.</_>
        <_>
          34 13 1 5 3.</_></rects>
      <tilted>0</tilted></_>
    <_>
      <rects>
        <_>
          33 13 3 6 -1.</_>
        <_>
          34 13 1 6 3.</_></rects>
      <tilted>0</tilted></_>
    <_>
      <rects>
        <_>
          33 16 3 2 -1.</_>
        <_>
          34 16 1 2 3.</_></rects>
      <tilted>0</tilted></_>
    <_>
      <rects>
        <_>
          33 16 3 3 -1.</_>
        <_>
          34 16 1 3 3.</_></rects>
      <tilted>0</tilted></_>
    <_>
      <rects>
        <_>
          34 0 1 6 -1.</_>
        <_>
          34 3 1 3 2.</_></rects>
      <tilted>0</tilted></_>
    <_>
      <rects>
        <_>
          35 16 1 6 -1.</_>
        <_>
          35 19 1 3 2.</_></rects>
      <tilted>0</tilted></_></features></cascade>
</opencv_storage>
